{
  "input_size": 638,
  "hidden_size": 10,
  "output_size": 638,
  "num_layers": 3,
  "layers": [
    {
      "weights": [
        [
          0.08753311937515648,
          0.017832494185801784,
          -0.03828262052204501,
          0.04338288178072719,
          -0.03832906859481546,
          -0.09507135187438427,
          -0.08728360922072587,
          -0.004320772340546097,
          -0.060454575300640176,
          0.0033017268589222715,
          0.07902371108709592,
          0.07707950732799303,
          0.0682721004399733,
          0.04874049214248506,
          -0.047234535061481966,
          0.06969734556361756,
          0.01674715090963963,
          0.03074021016382139,
          -0.05691913981772315,
          0.05267575727831303,
          -0.030926747639993132,
          0.09349488660810584,
          0.017817098103957624,
          -0.01285123229561913,
          -0.054263659571337365,
          0.04667459266404288,
          -0.04739160378526189,
          0.05760426737249982,
          -0.026223420349954063,
          -0.03496998085014616,
          -0.035785283931788966,
          -0.06251707125759207,
          -0.058658790848501896,
          0.08486426667738664,
          -0.041777579320641904,
          0.003961055573445879,
          -0.05716503292200412,
          -0.08565433585429137,
          0.09544405587522187,
          -0.019889643012488217,
          0.03905772772734055,
          -0.02283706855586374,
          -0.0964336273923957,
          -0.04465598045445572,
          -0.06674738996381133,
          0.09686670562795274,
          -0.006140954049985534,
          -0.045756329597708215,
          0.06240237821658817,
          0.03808536451537528,
          0.01118108097715381,
          -0.004752114424918477,
          -0.04318661554035635,
          -0.08530307003808474,
          0.090971497816528,
          -0.07418780759844955,
          -0.07985329779289703,
          0.031315805286121684,
          -0.056329157874709185,
          0.034452243818845214,
          0.011785177931178475,
          0.09111330624630354,
          0.07436522126800982,
          -0.060226911107356146,
          0.02857917719865663,
          0.08494854564523657,
          0.05561951689090336,
          0.0938169819836287,
          -0.026988805940504665,
          -0.03380323321665671,
          -0.025884370857657005,
          -0.014966528545506064,
          0.010780658610622917,
          0.02545394122615205,
          0.07461569143441807,
          0.0794919623793526,
          0.047418896154345885,
          0.09020077612388974,
          -0.007860698379432957,
          -0.03638643483928841,
          -0.09350588100686925,
          0.02675290235821004,
          0.08008546468135533,
          0.058110002451484635,
          -0.0786729686168404,
          -0.03126208279576903,
          0.07918379113334545,
          0.027659016305872978,
          0.039861590132952845,
          -0.022806216209796143,
          -0.06694990026847689,
          -0.034632645323023015,
          -0.08967467584841714,
          0.014338815555232157,
          -0.02836895282325856,
          -0.062318405723185304,
          0.002338127331850459,
          0.046456821059833425,
          -0.0889160045594663,
          -0.09206159395267002,
          0.06214790969740866,
          0.09316329998745351,
          0.07731260865332115,
          -0.028061145778976962,
          -0.09712699999240289,
          0.012917303379582232,
          -0.0496542646260431,
          -0.003278459142184942,
          -0.06227462841542695,
          -0.014225610900059938,
          0.0695324186510787,
          -0.022467139274397224,
          -0.04376853503398879,
          -0.08555019655651977,
          0.018829252206836553,
          0.08291499604558913,
          -0.041718286247349724,
          -0.032381827522111856,
          0.03193456065442623,
          -0.03787986007100624,
          -0.014754798771701744,
          0.05945069563224356,
          0.03629196005059071,
          -0.01646402766855322,
          -0.0005979720590376252,
          -0.07516334186544611,
          -0.043555172149258504,
          -0.057492750060862255,
          0.06581452472136173,
          0.003948283639885447,
          0.04548982535325119,
          0.08087245645186733,
          0.060392034191327326,
          -0.03923744857286735,
          6.342822875246568e-05,
          -0.02093082510179807,
          -0.0961059787287098,
          0.0615694761119303,
          -0.06819484106826243,
          -0.09690323799309129,
          -0.0358680908051148,
          0.027160351706952468,
          0.06476730505604333,
          -0.021825571907935104,
          0.022548269592426923,
          0.08482146825105127,
          -0.08407402579923436,
          -0.08813069010390372,
          -0.011101523983372316,
          -0.06226967905164704,
          0.03559817320216535,
          -0.0801182030039293,
          0.016671578831540912,
          0.068625199948219,
          -0.042400817176305686,
          0.049175318793849156,
          0.08055893309006376,
          -0.09069685595812918,
          0.09046519378937043,
          -0.004003574966769202,
          0.0936069470955883,
          0.040231835418556294,
          -0.020991037211968627,
          -0.04582958074229389,
          0.019357367647854756,
          -0.07016209160023486,
          -0.09540240411350696,
          0.08877549995146691,
          0.026038880771286133,
          -0.02584016295421021,
          0.06857617568295621,
          0.006278917242425311,
          0.06941031128226444,
          0.04755150575833755,
          -0.09157434056052226,
          -0.08503712057741795,
          0.007153659623536747,
          -0.08291069832553775,
          -0.04124666970295874,
          0.0940985178531461,
          0.06309001621493768,
          0.02812711041472496,
          -0.0990693431833452,
          0.052753643202496175,
          0.03977819640115454,
          -0.0003691490079308357,
          0.06303622483154955,
          0.06862316870473877,
          0.01823861858333596,
          0.0028799700877541793,
          -0.07520638899562,
          -0.004233719062503402,
          0.06750416716882976,
          0.08231070531858939,
          0.018634151999575008,
          0.015032856868994797,
          -0.021914976958551075,
          -0.09608034280439089,
          -0.020877250031190394,
          0.07114065846076081,
          -0.023855953547127134,
          -0.035158151169093196,
          0.014458426938791763,
          0.08813813997603354,
          -0.0409306431211397,
          -0.04821730831750684,
          0.08957606696774342,
          0.07826141068716394,
          -0.02969556286398882,
          -0.07671087796575107,
          0.06296315130824343,
          -0.07140868850144395,
          -0.011191311783160976,
          -0.029945016635752553,
          0.0858726929754361,
          -0.05645402551714014,
          -0.06871547213810135,
          -0.056832730111101404,
          -0.01963150304976531,
          -0.04624119826081999,
          -0.009226815302080957,
          0.03194237292706602,
          -0.08675556458223409,
          0.0009252554074163413,
          -0.026644837474210273,
          -0.029545197216847938,
          -0.05027551989664254,
          0.008561435811758084,
          -0.09048647212742447,
          0.02919038362178175,
          0.02036982802884632,
          -0.09913976672211107,
          -0.06856305922860348,
          0.006932899777899307,
          0.06036792555773424,
          -0.09046795723017381,
          -0.011454234667219662,
          0.08716579318412299,
          -0.029295470701292126,
          -0.09126122648083586,
          -0.05236154183347688,
          0.022618523537475798,
          0.024122383694896526,
          -0.03806917054221673,
          -0.04887616806923549,
          0.0990424242239682,
          -0.03583587013602321,
          -0.023751304735906805,
          0.09037887732243574,
          -0.0379089071154112,
          -0.06568798672674495,
          -0.07408683385929733,
          -0.0975259548803613,
          0.0981189227818837,
          -0.07811968632321464,
          0.01647084761775111,
          -0.09143671185572343,
          0.09990984528773789,
          -0.06741638169272743,
          0.029408590897105655,
          -0.09323275258865707,
          -0.017878963049934415,
          -0.055941639331537396,
          -0.0335255936310238,
          -6.692889376307121e-05,
          -0.09890347953183275,
          -0.011755434261157327,
          -0.027146495076740856,
          -0.0994983233899921,
          0.05224301754956304,
          -0.09935820037121548,
          0.0024498746690019,
          0.00841530133933048,
          0.09893490760725239,
          0.08318291694496426,
          -0.055398378694982986,
          -0.040590556549752646,
          0.04222078705196941,
          0.09361939170738295,
          0.01464695584320222,
          -0.06702916209377602,
          -0.06617051611509642,
          0.06870600037635488,
          -0.05180393204375289,
          0.09125069434884164,
          0.04988910095138339,
          -0.03359803869326805,
          -0.0036564554619173545,
          0.001422848585702671,
          -0.07812456938776693,
          0.09349679787378877,
          0.060805743563140835,
          -0.06001272187375557,
          -0.05772044511728276,
          0.060587106798617424,
          -0.0179432189619277,
          0.0032117064447325636,
          0.0845023412345083,
          -0.02754515768833872,
          -0.03605106357951669,
          -0.045716146853874706,
          0.030051887564952917,
          0.0247778741134628,
          0.06764558579222407,
          -0.0671457739267832,
          0.0914827869887147,
          -0.06654706882779593,
          0.053146183867779834,
          -4.9123335160078385e-05,
          0.011494141493232163,
          -0.0012950855477288775,
          0.09720217964901753,
          -0.0365659947080873,
          -0.05113170890367125,
          0.0811687861380859,
          0.04327736448874481,
          0.0513630014692675,
          0.009783424512783433,
          -0.07210959329230815,
          -0.044078129330992026,
          0.06997677095692288,
          0.04772491302563436,
          0.07969782186585823,
          -0.09221815633270594,
          -0.05039621685627778,
          0.00675484240513817,
          -0.0025707396855322723,
          -0.03165751364986895,
          -0.08297553820649706,
          0.08050666422681102,
          0.017110757717694075,
          -0.07251009427647559,
          -0.03502970651980132,
          0.02235989619953209,
          0.0668210417672073,
          0.004068481261140497,
          0.051438761550663806,
          0.06801227409176944,
          -0.011045954112740938,
          -0.09659615525889269,
          0.07096384440286771,
          0.03634523011168084,
          0.04675395224171652,
          -0.04167278411059059,
          -0.02081288751718205,
          0.05753770267714828,
          -0.00910785555947427,
          0.01365231972653358,
          0.09503395877653362,
          -0.03176926390989725,
          -0.09578444982484734,
          -0.09924343006664063,
          -0.08345610615953475,
          0.005678802439745792,
          -0.07045404545616435,
          -0.07579257644915732,
          0.09141268414438983,
          0.06837941393051776,
          0.05316464415455022,
          -0.03238640568569842,
          -0.08228037637255566,
          -0.08323954429357289,
          0.09891241895154504,
          -0.03773537361969795,
          0.050399946134022516,
          -0.040372857025453124,
          -0.0734269061917497,
          0.01627491229114393,
          0.08799342841916824,
          -0.08791502821938496,
          -0.028555349053297818,
          0.008075451515708723,
          0.029757330116599146,
          0.0015152794692262217,
          0.09788074335092553,
          -0.07129464476732657,
          0.047455770751890475,
          0.08808621826347751,
          -0.004198402471016174,
          -0.08013953318316802,
          -0.00599480282066725,
          -0.05234953342258915,
          0.02159322161991646,
          -0.030008688440329265,
          0.03737430017504445,
          0.0860425746853961,
          0.029084290075387237,
          0.09301023930266741,
          0.03562127115223635,
          -0.06542908824994853,
          0.03477866658917178,
          -0.012042117463665306,
          -0.05245880891995811,
          -0.07550976865636827,
          -0.09188638503959057,
          0.029818438240883482,
          -0.09482959652135983,
          -0.08358879847688548,
          0.04379970588504228,
          0.045945396096852616,
          0.012068644317881877,
          -0.07534954968895012,
          -0.05669175394679152,
          0.09548815286255267,
          -0.060735020917493034,
          0.011391754412792415,
          -0.002036591674837121,
          0.029637739832654164,
          0.06395466030128114,
          -0.08201902185664674,
          -0.004544315954637029,
          -0.025979229915110327,
          0.08972563674059209,
          0.010695400657641518,
          -0.08414457213017118,
          -0.0682657297109813,
          -0.08595630695174726,
          0.046301041133865156,
          0.01971987101349197,
          0.03776039222548866,
          -0.03757388908494757,
          -0.0006138001397379689,
          -0.015535226066918775,
          0.0799137818770683,
          -0.08856160339905361,
          -0.0401858274777164,
          0.013814699153105042,
          -0.07904645340391366,
          -0.08926927823005515,
          -0.0035816583429067322,
          -0.04194927358751475,
          -0.004927481764539873,
          0.06707034537723502,
          -0.07447867414431653,
          0.017099213072117057,
          -0.07366924295210686,
          -0.0015459419110225834,
          0.04375682637545183,
          -0.07280822986846047,
          0.02076601394624314,
          -0.022584280180813113,
          0.08364561617477154,
          0.09531719625063623,
          0.0282052171169814,
          0.0923799357851498,
          0.07046705355123273,
          0.036975638930909646,
          -0.09404211009229085,
          0.09475991829411964,
          -0.0688592911438841,
          0.08646720580850747,
          -0.024802831478606444,
          -0.08982991328883233,
          0.008761506839785225,
          0.04602658002886381,
          -0.04638951612305116,
          -0.04104686150992698,
          -0.013920792310767344,
          0.06306689657752315,
          -0.026358508069655298,
          0.016888467491639372,
          0.016482978719321542,
          0.06423920383441539,
          0.0005068249530487401,
          0.018169702116262787,
          0.0657273434992221,
          -0.0899699998072197,
          -0.05620492061499809,
          0.038283558915525095,
          -0.0969998831969407,
          -0.09254294251694602,
          0.0010223025802898744,
          -0.05204483143379344,
          0.034593392865571414,
          -0.051719007338807056,
          -0.010934394383942322,
          -0.007129560967843673,
          0.045336951008902504,
          0.06105383113616736,
          0.08797212274084423,
          -0.0520180418041512,
          -0.02410766953827162,
          -0.06286467849807242,
          -0.032775989018359014,
          0.0604415173689207,
          0.06061260184655659,
          0.05943596807093135,
          0.06017748012839952,
          -0.010897085315979892,
          0.016668488844319707,
          -0.011435769647522381,
          0.05496246606230465,
          0.06909597395468753,
          0.0870191979467648,
          0.02355791266754828,
          -0.09491430099321885,
          -0.06494860919273585,
          -0.06841136779254514,
          0.01688586707902809,
          0.05784448320557964,
          -0.005853184319477081,
          0.09415515223538906,
          -0.007101715637168729,
          -0.06147256675706969,
          -0.05823630819581454,
          0.04282080618694445,
          -0.018091004390696636,
          0.011140300164838047,
          -0.04507952107484197,
          -0.0641483273674962,
          -0.005348531380539754,
          -0.08710776600813586,
          -0.01064312553224267,
          0.0052012003405846885,
          0.018342611777151865,
          -0.09796065205268817,
          0.09794193538356874,
          0.027531023858518217,
          -0.01124369876735816,
          0.0659067140085364,
          0.09488873011022642,
          0.0953932492268651,
          0.09855870965957292,
          -0.09747240907328136,
          -0.020721290972470066,
          0.06238493571431228,
          -0.011962436871066948,
          -0.027956756006124392,
          -0.027923333257626737,
          0.0383345960797386,
          0.04262751077189708,
          0.0072755466138732655,
          -0.0306701613015775,
          0.01478328301917746,
          0.039105678672091304,
          0.07215487455969424,
          0.025423811092941406,
          -0.04637609245948591,
          -0.010275856482300984,
          0.015265530739429711,
          -0.08903047903855164,
          -0.015863687276145816,
          0.09856762311819939,
          0.02996319196425931,
          -0.07611332452443245,
          0.09723069928677758,
          0.06265174235315324,
          -0.07887438856593827,
          0.07358927254908185,
          0.0010386293439973021,
          -0.03401021034298089,
          -0.09552398390494946,
          0.06122086651340066,
          -0.059166507215875686,
          -0.05630018216216369,
          -0.07384470155462089,
          -0.030760504410767678,
          -0.012067790239164114,
          -0.005427428062848863,
          -0.004975160361937597,
          0.00258571765386853,
          -0.06365823371114605,
          -0.022085059738901524,
          -0.07529689520266125,
          0.08139893563364614,
          -0.023386909609742948,
          0.017593176974473573,
          0.08671650466865188,
          -0.07779394026374127,
          -0.0676717309750205,
          -0.07175870569135595,
          0.04618551391063455,
          -0.006281005957949143,
          0.017130734008832443,
          -0.010008850076468831,
          0.07379165670429536,
          0.044489782435532726,
          -0.015610430696965577,
          -0.028676891968173468,
          0.0329225131805064,
          0.0983400405055376,
          -0.08416510331307687,
          0.08630615478949516,
          -0.011886505165066438,
          -0.021949208794823608,
          -0.05669032820274869,
          -0.09822767325093895,
          -0.05859267000189266,
          -0.05168354731522273,
          0.07258347665766701,
          -0.09447761825739727,
          0.007239207041625617,
          -0.011425110321396915,
          -0.06812865089852271,
          0.024958944970220137,
          -0.017789219989726462,
          -0.08144097701456428,
          0.04136324103482619,
          -0.014388259311151334,
          0.07261399895047169,
          0.0890077171135163,
          -0.02756615321697413,
          0.08719282490038856,
          -0.0728540037401422,
          -0.08740730157326822,
          0.08024052051934388,
          0.09956296689544539,
          -0.021123150356754716,
          0.08597486940689245,
          -0.08203199212762144,
          0.016970600600215408,
          0.02574356799685884,
          0.08065727832156627,
          0.006368361585777471,
          0.020092882292868805,
          -0.02795892577019017,
          -0.04156572684570643,
          0.06629619243962265,
          0.08296250405976,
          0.018556247641067364,
          0.037766629639005234,
          0.011275954774059585,
          0.07038819216512615,
          -0.037464075394918916,
          0.00768022780780167,
          -0.09328613219460886,
          -0.04365865734900379,
          -0.04307772092911049,
          0.030942842941415638,
          0.091901780186017,
          0.017668445085178022,
          -0.007456756610195334,
          -0.0994040195718171,
          0.05443985919032203,
          0.06908456267275526,
          -0.005931680853225374,
          -0.0717854745952997,
          -0.03549069067153725
        ],
        [
          -0.045687409849653464,
          -0.03555949469210629,
          -0.07031821020612793,
          0.05870761238271919,
          -0.02060136173057183,
          0.0542703803389153,
          0.01731166700728781,
          0.05934398790467698,
          0.03573805645196262,
          0.04262575524845877,
          -0.047991783240999224,
          -0.0367995930906606,
          -0.0347611658344388,
          0.006274734651697443,
          -0.07791920364066701,
          -0.06779153022784987,
          -0.03795928247855456,
          0.07595662473378928,
          0.08916455219697503,
          0.08265739397552849,
          -0.03818693782750078,
          -0.06574725832888342,
          -0.03746899601937594,
          0.02519230352754524,
          -0.09762281739067383,
          0.0412332497436988,
          0.077837516750839,
          0.07816067238469909,
          0.05082350740213975,
          0.09773379549890823,
          -0.07296425008613255,
          -0.049866199501228614,
          0.05851103737724392,
          -0.08575386342832472,
          0.06412060847290005,
          -0.04499894620494907,
          0.03972045820850195,
          0.09224779445273246,
          -0.07583509331545878,
          0.06952343599484023,
          0.01705998091424007,
          0.09671791332650582,
          -0.0847704762427841,
          0.06702255390114337,
          0.0007255473321749049,
          0.07027216563362143,
          -0.06742892123321668,
          -0.04379629973545841,
          0.0997620494882161,
          -0.004013444479872084,
          -0.0720605171492597,
          -0.08207609944783266,
          0.02905639415102751,
          -0.03483509623292065,
          0.06459913458758595,
          -0.0708862971459118,
          0.08811372145054808,
          0.09569393920656716,
          -0.026967635866268366,
          -0.08816130811052707,
          0.05153988963532245,
          -0.09568410250137027,
          0.05031030354832389,
          -0.04713753249752853,
          0.014101418633333362,
          0.0672808021128874,
          -0.030994681980421504,
          0.044982153413248134,
          -0.09692276887521883,
          -0.03804252033196418,
          -0.08456298426169478,
          0.05031301616808748,
          0.0008722806441783126,
          -0.014039197669261982,
          -0.05703190378752248,
          -0.055845936521605744,
          -0.0542941177175897,
          0.08760462361874441,
          0.0595207799465369,
          -0.04641205046617646,
          0.0845570795880825,
          -0.013604905385747648,
          -0.07184759964178354,
          0.08321279324461826,
          -0.03700820471687147,
          0.01191013040561259,
          0.07532935899703326,
          -0.060530391070742665,
          0.003218364906955979,
          -0.0648115751351934,
          0.0786673798922598,
          -0.03465050872433491,
          -0.07216000342934466,
          -0.09442351120992637,
          0.0006567773621025258,
          0.07476677315822619,
          -0.012275106612519043,
          -0.059233296794112024,
          -0.062409852416673295,
          -0.06822779544870655,
          0.06195479575085766,
          -0.07697889817314585,
          0.06216769811536499,
          -0.061912009501551075,
          -0.022097191291499674,
          -0.034703927479244986,
          -0.042174510742794415,
          0.035622461515842474,
          -0.011992069561749613,
          0.06896951805371701,
          0.07429256295005496,
          -0.01579826865581442,
          0.06891161457568593,
          -0.031151520093719937,
          0.013490134761733302,
          0.09960335752693361,
          -0.08005699928611035,
          -0.06944868295283098,
          0.05322070399571165,
          0.03962584021767884,
          -0.06802007539796914,
          -0.08119286577891256,
          0.07806605172947056,
          -0.05028639149276244,
          -0.06387636585503519,
          0.007900998495525693,
          0.005350273162670364,
          -0.08555986133305736,
          0.06963022690446394,
          -0.03730829584271936,
          0.08528483276736457,
          -0.016678962577715815,
          0.0946457103633469,
          -0.031371485755562964,
          -0.01232250032418955,
          -0.04833398964301288,
          -0.0026113288182455507,
          -0.025318500188784045,
          0.030742925876473204,
          -0.018050336161412484,
          0.057877899117367404,
          -0.03499062655007322,
          0.02698498265099274,
          -0.05899964236609994,
          0.01865460562179158,
          -0.0006022860374767701,
          -0.018249671942779003,
          -0.024485866508154205,
          -0.07288720387020715,
          0.04892350046417554,
          -0.010892665871163191,
          0.04946105283965968,
          0.011860567038318282,
          -0.08203437170985028,
          0.05338840651282005,
          0.05886516411011375,
          0.06168376313141216,
          0.05272170333848131,
          -0.056408758576841536,
          0.07532965471329003,
          0.02215514588226931,
          0.08322201350159933,
          -0.019915209535873092,
          0.05563877702140082,
          0.03204731962364929,
          0.03726313554110394,
          0.09190252641060623,
          -0.022395787915477625,
          -0.05290331453345187,
          -0.022615701552985354,
          0.0008619663094459468,
          -0.07342187931700082,
          -0.06584748321104991,
          0.05884628655406288,
          0.08745799241890834,
          -0.005379909840446641,
          0.005262971526430714,
          0.06322043134949155,
          -0.022544333963849236,
          -0.07220879355066977,
          0.027202898938146564,
          -0.06384025714606886,
          -0.03322337077443956,
          0.04658504849778941,
          0.021662655596081843,
          -0.0596998049050031,
          0.07357844926812167,
          -0.042820840848395804,
          0.01580640022653609,
          0.09872802185796603,
          -0.002833238477509462,
          0.02083132890991675,
          0.01829495913442654,
          0.09886250944932123,
          0.004782791991971176,
          0.016525906426327387,
          -0.08346790825722239,
          0.09939206524885616,
          -0.04524113898071384,
          0.00856872996912314,
          0.01828347166783702,
          -0.08947082643188971,
          0.046257884373656875,
          -0.04453761702490902,
          -0.004606595463520789,
          0.09831446144223153,
          0.042694159593203815,
          0.0060051969480325595,
          0.0932872761593876,
          0.07926028856074036,
          0.017149631657120076,
          0.06182225314737452,
          -0.06641886674537385,
          0.035517005419431945,
          -0.06047439098355958,
          -0.07815905615737767,
          -0.07331713556959389,
          0.08542572057980685,
          0.003149491812403246,
          -0.04167485460396125,
          0.048750753989083184,
          0.06776756734337465,
          0.07781845001447643,
          0.09148783887151514,
          0.06785160544360821,
          0.06960900263882729,
          -0.0011283737958469526,
          -0.018823542944142707,
          0.04710740357340529,
          -0.0944786409750125,
          -0.05528734829768365,
          -0.010536125327130039,
          -0.007897508001500353,
          -0.013268038680757793,
          0.015762431071965982,
          -0.03487369216327128,
          -0.07199801753419688,
          0.04408735938457514,
          0.07888265239110195,
          -0.09350024944582007,
          -0.042334030474811095,
          0.020826281707566893,
          -0.05585001823646672,
          0.031794507146579526,
          -0.018558878582734008,
          -0.03098595535381452,
          0.06836141726173953,
          0.08033632286352561,
          -0.0805712105541831,
          -0.007566928042246013,
          -0.04916484040462117,
          0.09818089335121179,
          0.0799826316010542,
          -0.06260912182910486,
          -0.009257749216951017,
          0.04889390981111158,
          -0.024397419525997898,
          -0.0564821008177056,
          -0.04629695648523427,
          0.09647107770365175,
          0.06691296558776924,
          0.04680581080127085,
          0.07189329048104529,
          -0.033297035744608926,
          0.026229548542039207,
          0.036421351252843015,
          0.09600121970747334,
          -0.054841964062580476,
          0.06751851827076788,
          0.08219088687051118,
          -0.030322524943714346,
          0.08847747917619811,
          -0.0378622841704803,
          0.07695629696233405,
          0.06166442751451799,
          -0.007542582191125691,
          0.02290824248904012,
          -0.0020440187620959643,
          -0.09617583342045422,
          -0.02537067141750431,
          0.03646503049543781,
          0.05913419739081391,
          -0.09534267721702357,
          -0.0403588859835276,
          -0.07784678411627004,
          0.04643848448503516,
          -2.6544475902627756e-05,
          0.02877897431453068,
          -0.008644950008508442,
          -0.05727496343710579,
          -0.060779637959768255,
          -0.03816069821306305,
          -0.06425541517083733,
          0.0696418224042561,
          -0.04066195649457598,
          0.053334181712596636,
          -0.06303120741954371,
          -0.0013170700944887062,
          0.014117699204377374,
          0.010728004713114012,
          -0.031919962472535396,
          -0.03538139179199503,
          -0.07858034412328281,
          -0.046736395139810746,
          0.004710647839001991,
          0.08275038767822915,
          -0.09575901349022256,
          -0.06166522969659722,
          0.031076004018199394,
          0.038465400121837384,
          -0.059814145409735335,
          -0.08292055285347877,
          0.030304448489035518,
          0.08238929051711771,
          -0.08233070001997361,
          0.02325936243189866,
          0.05287055719421795,
          0.03530105051205773,
          0.07757337747916643,
          -0.007317367056280857,
          0.004992624996043826,
          -0.06638471235714401,
          0.030579592755994055,
          0.03983796052194652,
          -0.07932232335539986,
          -0.0697591298897031,
          0.015151295442497464,
          -0.08840040738665063,
          -0.014074189802658735,
          -0.039141147581158414,
          0.09696192494890912,
          0.0355033564285652,
          0.08777828893653705,
          0.08791149744539994,
          -0.08561170358118192,
          0.015921851171305186,
          -0.011523713491310865,
          0.08901268520620537,
          -0.06164973413161179,
          0.06404836373967418,
          -0.053470298992264145,
          -0.07444134109416177,
          -0.0035505726317632547,
          0.013729847217596333,
          0.07613853880602495,
          0.08623075294056604,
          0.0765558242993106,
          0.0018798165674816375,
          0.0007261257310217373,
          0.07590613706046065,
          -0.032547687011813764,
          0.07201941155601257,
          0.0516878920073531,
          0.0553016711623381,
          -0.0342090445940932,
          0.045318914537013505,
          0.04227065281656722,
          0.010797211765171955,
          0.01059018781755508,
          0.015253307362679672,
          -0.07489350505581417,
          -0.011598374737133207,
          -0.07602625034639497,
          -0.02922954617056049,
          0.010249227461217616,
          0.018464316066556852,
          0.07873680231198854,
          -0.04359753843315861,
          -0.04175809173518184,
          -0.07791240874593246,
          -0.09250887437523574,
          0.09776224740052425,
          0.0390538235284938,
          -0.060125803012245495,
          0.05948127954851152,
          -0.08494556354429217,
          -0.018512137360518544,
          0.042869021222494086,
          -0.05194111397949078,
          -0.06451832692685924,
          -0.008939748632743966,
          -0.04730407759308175,
          -0.07578662545218735,
          -0.0008708350879954307,
          0.014774533611351504,
          0.01979873778141363,
          0.017685011084733818,
          -0.009600175999066929,
          -0.0023638160897396466,
          -0.09602378405643314,
          -0.0278178925362023,
          0.04599063943144041,
          0.022094013120601667,
          -0.03977094490414769,
          -0.04397570126179437,
          0.06186569708546123,
          -0.050310417328519645,
          0.06468773113677448,
          -0.052656683232850506,
          -0.09684782896935071,
          -0.09897060615774299,
          -0.02511471454596846,
          0.086163565748261,
          0.05112752121790111,
          0.022585423472289506,
          -0.04814138753439974,
          -0.0744782139307763,
          -0.09829342211604633,
          0.02036278325349547,
          0.07655847738038117,
          -0.022603194581860376,
          -0.05994498413273853,
          0.05833719002847779,
          0.07139322305922839,
          -0.021140359828643512,
          0.09650628880506656,
          0.028670406798780506,
          -0.09239129025032038,
          0.06391421836350443,
          0.026892519276499452,
          -0.0727516278061232,
          -0.010126335222909982,
          0.007060951212192052,
          0.0308350960510117,
          -0.08367679820594374,
          0.08881215384896052,
          -0.072104389114877,
          0.015287038626921087,
          -0.07024850814113202,
          -0.061251865135761085,
          0.01918552426191253,
          0.006755641516232619,
          0.0330021479572322,
          -0.04214780127836885,
          -0.058525283189024765,
          -0.0047842273770738195,
          0.07773884453941539,
          0.049336693531855415,
          -0.043219239207033834,
          0.038462309881922396,
          -0.008862060538400635,
          -0.08855242915184143,
          -0.007751883962810382,
          0.030298242286265403,
          0.0007817569894990955,
          -0.04008738476015048,
          0.028080244332454065,
          0.044072823815688576,
          0.09531951811013095,
          0.09013266921174222,
          0.06694593650112397,
          0.09970855537228926,
          0.09935075307112427,
          0.02640917390687654,
          0.04083343553444124,
          -0.013447065900981176,
          -0.04267020008714742,
          0.016184734360442137,
          -0.034317375838626915,
          0.05655337492094012,
          -0.03249245451926974,
          0.06352959159614065,
          -0.07088975202592857,
          -0.07416571907143495,
          0.040934460496970804,
          0.0020886816983133705,
          -0.06325885427442068,
          0.017207827451260413,
          -0.05791849219305465,
          0.03449979151329172,
          0.03671443400155363,
          -0.07979098870808808,
          -0.06911331004844486,
          -0.047286141213313405,
          0.018021783543324926,
          0.02928586807485889,
          -0.015203967944158162,
          -0.047212261720921016,
          -0.022920625108834566,
          -0.03639891771721414,
          -0.05953830089415855,
          -0.06948059918098622,
          0.029267660284838848,
          -0.060125317981696985,
          -0.07870820313531013,
          0.025205542053783905,
          0.09226549299795597,
          0.008331174312955422,
          0.09520848484630305,
          -0.06605280570008139,
          -0.08854042824058143,
          0.01942845302411933,
          0.0971621380235593,
          0.07987739364941332,
          0.08290849295584632,
          0.05077424132204336,
          0.09635695231395555,
          -0.030401784960547545,
          0.05537359543947831,
          0.09126605509964171,
          -0.058065264677338906,
          0.06283057426884232,
          0.08131725340074902,
          -0.0769255364743146,
          0.03391836079524663,
          -0.06831341070457589,
          0.06080612184673766,
          0.028363787906567177,
          -0.07270922993448017,
          -0.06979969782758833,
          0.09986586859113646,
          -0.08497117755033268,
          0.08800322477868902,
          -0.05052848614158472,
          -0.04440492201207552,
          0.04980492350577442,
          -0.04089378621857223,
          -0.08440802908658095,
          0.02694771414233546,
          -0.05983808624396443,
          0.05269187483914532,
          -0.05144652752615543,
          0.09900076317806303,
          -0.0016187784549619721,
          -0.0997646016188235,
          0.08207415468730739,
          -0.03974066437749862,
          0.07247823982691545,
          0.04586356774559937,
          0.03863598128719431,
          0.062255585719063394,
          -0.008197672834993343,
          0.061640774854233894,
          -0.05150195349259615,
          -0.007763576691355786,
          0.03385332944390971,
          -0.05996474751617923,
          -0.03895373318635807,
          -0.029901026456179484,
          -0.09981166778554572,
          -0.06606867799616545,
          0.042267632052355564,
          0.04950583566183894,
          0.064138531310669,
          -0.08030020100839366,
          -0.04637600501492486,
          -0.08635335116949566,
          0.05987441085204914,
          0.07032355892757397,
          0.009693653958079819,
          0.05722042932049343,
          -0.06670746556053041,
          0.07017280296876695,
          0.04491826600734106,
          0.0879749001529021,
          -0.04623569992395114,
          -0.013102145992297351,
          -0.09385233331064334,
          -0.05078194207725106,
          0.007996784145538754,
          -0.03038049232314688,
          -0.09029536308970215,
          0.008635581630183046,
          0.0765352824004458,
          -0.026267084402226012,
          0.05906423472339392,
          -0.08157863014768266,
          -0.014862074023515361,
          0.07992302874886881,
          -0.062025490891656404,
          -0.08769539823603008,
          -0.06412266355000089,
          -0.025898204023525384,
          -0.077833641713127,
          0.05651834949920915,
          0.055959652231392626,
          -0.005596863501033972,
          -0.09754484118670961,
          -0.09035930999557934,
          -0.039694083783516555,
          0.0878454563892267,
          0.05746999263870864,
          0.09365669829207485,
          0.028441272989466776,
          0.034816961026658544,
          0.018203632490169947,
          0.042609397606449925,
          0.04135974944139403,
          0.010856026769070756,
          -0.0525973507656127,
          -0.07641969421875004,
          -0.02393967271995498,
          0.069248869799646,
          0.03341123699706264,
          0.08021523942675218,
          -0.08224022335142273,
          0.04091860002309181,
          -0.0821486468566603,
          -0.001624436599869314,
          0.08305430102320269,
          -0.030588786436846635,
          0.09581286800418998,
          -0.07378024440398796,
          -0.060108284006818405,
          0.008795031030990642,
          0.06498271867468128,
          -0.03149089863298693,
          -0.024794036224083126,
          0.02564359305675041,
          -0.06758083245354206,
          0.03604518678772344,
          0.04368128834017143,
          0.05239233477828775,
          -0.035472419098809764,
          -0.011576959214427444,
          0.09170432289535387,
          -0.051972786009962406,
          -0.028900923816573762,
          -0.048722079073185445,
          0.0695462087064221,
          -0.06767087077188869,
          -0.07088768114626515,
          -0.03436882856934708,
          0.061188139244041956,
          -0.021273815937461776,
          0.05998484213026941,
          -0.012890718305800172,
          -0.09203556673000389,
          0.029342894663247993,
          0.05594679292990213,
          -0.09504564770529067,
          -0.06348178364183613,
          0.0639427582194136,
          -0.00023602032231016215,
          0.0044369367716153435,
          -0.06518445669189321,
          -0.0658148295547003,
          -0.0647082205901703
        ],
        [
          -0.07072080987343282,
          -0.08330186736991195,
          -0.013287255019057781,
          0.027749056992838743,
          -0.06381290112645258,
          0.017727264811237143,
          -0.024654029062446986,
          0.04358191278862426,
          0.033612480199206526,
          -0.007507048949895595,
          -0.03734721453762889,
          -0.06959415705573534,
          -0.024658815348960802,
          -0.019024275581106722,
          0.06707058412814974,
          -0.0508213714970647,
          -0.06307107994956251,
          -0.035082150368364415,
          -0.08174363700718211,
          -0.09389566342163264,
          -0.08856138494849648,
          -0.07993928665023864,
          0.07419450867043373,
          0.08092755226640337,
          0.023077351388261766,
          0.020672236923028237,
          -0.03979045974063949,
          0.04915415587502017,
          -0.059692240536242426,
          -0.09239359861992585,
          -0.021336993135349605,
          -0.02057584796437731,
          0.07458575156479788,
          -0.02516521794614467,
          -0.060665033239626555,
          0.022349576412716593,
          -0.07336075127096814,
          0.01340809871954163,
          0.05249303937057537,
          0.08528725136964208,
          -0.021380023092568895,
          0.08190922662085548,
          -0.06925622453590685,
          -0.06603034994068818,
          0.0008655054975379023,
          -0.0031211971750897127,
          -0.08227224021428262,
          0.04721141295860645,
          0.04942960825993495,
          -0.023339339137382217,
          -0.028103179296971703,
          -0.059174525139612036,
          -0.00014083671875542159,
          0.033449444748506696,
          0.053545994374924605,
          0.03203166865205592,
          -0.0441202171234695,
          0.09473044995006019,
          -0.017602751920265697,
          -0.07386008303073728,
          0.018035679166517896,
          -0.03291601309710816,
          0.049116496521296155,
          0.03168663955835624,
          -0.06054942693204044,
          -0.010243178499997743,
          -0.09625165115876982,
          0.09816751600299681,
          0.030815653736166654,
          0.04940121420146143,
          -0.08873606932563811,
          0.0905632175777169,
          -0.03855441995294358,
          0.07015344491782122,
          -0.07443670393365645,
          0.0719299204761322,
          0.02090075607625748,
          -0.07314463955316097,
          0.08716107624135636,
          -0.036949911947667946,
          -0.059730454968830005,
          -0.06519002225345023,
          -0.03231097066928189,
          0.016392652689399892,
          -0.05276409987198832,
          0.013697021025071046,
          0.09248481376300996,
          -0.09966463959972871,
          -0.058576809620991925,
          -0.06905246523341635,
          0.055395125721678595,
          -0.03417283480212639,
          0.05643267748720557,
          -0.029995197022608514,
          0.08846694155423901,
          -0.0525556380744269,
          -0.05416467596632244,
          -0.06051913006196026,
          -0.07498974133870812,
          0.09921190839711963,
          -0.0834717058511592,
          -0.0931681069244879,
          0.09363621379177442,
          -0.04995986988261303,
          0.0970670244969751,
          -0.09132851229459094,
          -0.03411982528148312,
          0.05856177593093248,
          0.010088319244889357,
          0.005889852567140877,
          0.054670029187374986,
          0.00975661576657609,
          0.0808307525977674,
          -0.09861102546131557,
          0.000938988947316588,
          0.047805626064957286,
          -0.02431518393303349,
          0.08468525042635808,
          -0.017247610428905796,
          0.031731409328215415,
          -0.08456426361592756,
          0.0679937650264533,
          -0.009427151154689367,
          0.04996297800259511,
          0.06007799772859118,
          0.06353677048168262,
          0.0062896820846355395,
          -0.0826301303002131,
          -0.04299145090894052,
          -0.07682731491316155,
          -0.041512918959029144,
          0.06532638298405122,
          -0.03201738040015999,
          -0.0659747962168143,
          0.06805164769916336,
          -0.06941900173335486,
          0.009045884104832452,
          0.07829062780446361,
          -0.001453650303248094,
          0.09733121152738322,
          -0.031718753451544277,
          0.09318489964948273,
          0.03769731240612553,
          0.060221753085347406,
          0.07352324782986111,
          0.05600247012896503,
          -0.09959127825153254,
          0.05122951202521376,
          0.05576406837099315,
          0.009376656260216137,
          0.08133604862525234,
          0.012298658324204598,
          -0.06644375978262065,
          0.002167604890644076,
          -0.016461016427284602,
          -0.05202915212367882,
          -0.06854578855490745,
          -0.02897682218789724,
          0.016685240875322818,
          0.05655856835476726,
          0.01380995838842138,
          0.029147327140733842,
          0.04121479661586647,
          -0.06036242282086266,
          -0.08392543667547483,
          -0.024053373709795697,
          0.09512656736581801,
          0.020386170269437592,
          -0.09619784630631059,
          0.00532896159322524,
          -0.09849161664180942,
          -0.029340120121619864,
          0.06506252449839264,
          0.06557084545570038,
          -0.05987589301782821,
          -0.08666722095952416,
          0.09775647709087823,
          -0.08952782112369569,
          -0.061001690992117476,
          0.048074027650041595,
          0.042573060444539096,
          -0.014433255125653147,
          -0.04003941829475344,
          -0.06506804625556586,
          -0.0558223362243113,
          -0.060825307769354624,
          -0.07880669098677945,
          0.00421803144781592,
          -0.06392142491256285,
          -0.03656210777042982,
          0.06081552581033539,
          -0.04805309695736464,
          0.08888305295006002,
          0.07599069876681339,
          -0.03004714394103307,
          0.0031051641956365977,
          -0.05430441231011185,
          -0.013399713561081564,
          0.005814358197984488,
          -0.09241540806662302,
          -0.022845745148219285,
          0.04178768930074153,
          0.09911585935311716,
          -0.09281470356243103,
          -0.06790556866214592,
          -0.08825613860211763,
          -0.047105703502305876,
          -0.045714477053027225,
          -0.006082981167799428,
          -0.004277076792141912,
          -0.06131123815525111,
          -0.06512801086061379,
          -0.04137221055127314,
          -0.09711765089203006,
          0.04805005453794095,
          0.09264482853095776,
          0.05282248282396419,
          -0.003604191049393402,
          -0.07640126962054994,
          0.07358274004889495,
          0.003923362856801144,
          0.06762675674321421,
          -0.038668509998871614,
          0.006284971466974689,
          0.005891550514472058,
          -0.08393023390624495,
          -0.09408830300200839,
          0.01023889001779106,
          0.021263154941222634,
          -0.09376756337052634,
          0.04306926008445289,
          0.03581165186125268,
          0.09307598552005542,
          0.03732490669366992,
          0.05311652401173961,
          -0.017647587443177584,
          0.08114342014399659,
          -0.05188768950595449,
          -0.06296789688680855,
          -0.013279350089837924,
          0.039533950122210865,
          0.08652241442910376,
          0.08741078891815543,
          0.02347631943499473,
          0.09366159880698087,
          -0.09475882157636009,
          0.025692574406951663,
          -0.044083104015345084,
          -0.06174775268117963,
          0.09148011358041117,
          -0.08268705152576335,
          0.04585212063031014,
          -0.02935905778018902,
          -0.0083925730041704,
          -0.04268528715966115,
          -0.04097777211500575,
          -0.03614276528735215,
          0.061917672633581666,
          0.0787781091438407,
          0.019522980559169498,
          -0.01170626706811502,
          -0.0144203407039952,
          -0.09166119041916082,
          0.06135941868135989,
          -0.09419316974585207,
          -0.011406027773678912,
          -0.050172820845021504,
          -0.05470974553308061,
          -0.06400007009957862,
          0.050286770446527074,
          -0.08931647309797056,
          -0.09356853974288515,
          0.03851424968509423,
          -0.014989275024044783,
          0.030380756984084153,
          -0.039768006978137586,
          0.06613046083821571,
          -0.07401194514919973,
          0.032489341986920134,
          0.08248992795871893,
          0.07806572714687346,
          0.027888562309329346,
          -0.07514612925686721,
          0.01446306083996314,
          -0.07208335960385526,
          0.0365061172173559,
          -0.09265724316215258,
          -0.057623342549569356,
          -0.07917464291318846,
          0.06369023390033111,
          0.07252469909607842,
          0.03022610570573772,
          -0.0829425723723847,
          -0.06975496854175249,
          -0.04211969255402042,
          0.06573771284231666,
          0.09432725592275355,
          -0.08141879175007179,
          0.037018069154439004,
          -0.06372277534640014,
          0.017048979362752847,
          -0.053510391616241715,
          0.0160733702458193,
          0.037479562425040996,
          -0.09858662405537535,
          0.06069441282889031,
          0.021535306741726323,
          -0.09417162465608356,
          0.06005537069669584,
          0.039559990454175464,
          -0.014364729322142972,
          -0.025517504794621768,
          -0.029107680669133593,
          -0.03459146092760944,
          0.007390121983285633,
          0.07821855861294205,
          0.06767647966909064,
          -0.06956051080542547,
          -0.02123011899792801,
          -0.04636889014921391,
          0.09724307988049354,
          0.010896185829244787,
          -0.027798591854555202,
          -0.06711076995294571,
          0.019392101702754433,
          0.07318726341224166,
          -0.030046366349786732,
          0.08114061668980349,
          0.07056567910859014,
          0.08066917988882391,
          0.0677439114327231,
          -0.03342692562064882,
          0.0005309486220003492,
          -0.00017649909811731646,
          -0.07228305765549647,
          0.0036980378341375177,
          -0.09568854017081055,
          -0.012886235648477323,
          -0.022254949210122582,
          -0.08428527150347055,
          -0.07694553207196492,
          -0.0977072038559857,
          -0.06437572732260495,
          0.01761891260538126,
          -0.08427788366658451,
          -0.028844653464972322,
          -0.03138030318991658,
          0.09122905402772452,
          -0.09732711539989194,
          -0.05400629399489516,
          0.05258506452225639,
          -0.05058827514707423,
          -0.025466378360464795,
          -0.09435710771692947,
          -0.007162777915963606,
          0.04726065705602331,
          -0.02127137829665733,
          0.004960402429678868,
          -0.029718250210358746,
          -0.06575323247409601,
          0.014601411451738634,
          0.004020290105706398,
          -0.04333328946913795,
          -0.03176269916053097,
          -0.04811594755738868,
          0.059056545750135525,
          -0.034346677793194925,
          0.07774209544828606,
          -0.08516521049778154,
          0.04450979886994977,
          -0.027933684943959716,
          -0.06002374260796626,
          0.06745676007214814,
          0.09805169636839899,
          -0.08931611335743771,
          -0.031179622361293888,
          -0.05866657690725812,
          0.05207551445347702,
          0.036615708738598346,
          -0.023133183703407473,
          0.06909258733619433,
          0.03754469312726724,
          0.035579770474289674,
          -0.03327118956978346,
          0.013565350732728382,
          -0.022097422866240293,
          -0.017946882802158837,
          -0.05271660540858008,
          0.03308161701794944,
          0.020008563130337317,
          -0.07888750255292265,
          0.09190472121877619,
          0.03547619052739845,
          -0.01241791734789141,
          -0.07906290371073524,
          0.09560045015949942,
          -0.08603498338573023,
          0.07155415025559869,
          0.0621799776108557,
          -0.08686245513507079,
          0.084302883105935,
          0.015085650636391973,
          -0.010551507602179683,
          -0.02386247831021945,
          -0.025233388892777375,
          0.06509456093083316,
          0.03279967578560258,
          -0.030755473516135903,
          -0.09831456809146939,
          -0.02126129655931272,
          0.07042164155527328,
          0.08414834091212182,
          -0.037108579562166,
          -0.02263666853497301,
          -0.05036811553557066,
          0.08449467921304854,
          0.014333672766869534,
          0.05097219175600315,
          0.052597869410285755,
          0.028179672576529907,
          -0.025735918097179705,
          0.012917376320723178,
          0.07734743471125644,
          0.052652837138727565,
          0.09668686870281688,
          0.07835894363840895,
          0.07513646499503288,
          0.0979542916887926,
          -0.06330855404702757,
          0.057798100788100715,
          -0.07019143518711835,
          0.01676656017166263,
          -0.0772815880917857,
          0.005192919505852199,
          0.08406164524344836,
          0.003354470963863432,
          0.013981140109455873,
          0.005149486611253197,
          0.06788342263853908,
          -0.06839538163636945,
          -0.042895505910829426,
          -0.08134984636160646,
          0.0356491965484278,
          -0.06550367872892196,
          -0.060090132634149196,
          0.046272446346041496,
          0.09551124533033453,
          -0.009514274836989106,
          -0.014020263471776137,
          0.01216851830665,
          0.07536208238430925,
          0.09405167438287185,
          -0.09255722966035579,
          -0.08271362212017985,
          -0.002505214922179172,
          -0.02889215740489064,
          0.09341819968060047,
          0.06451197519185858,
          -0.03179796006278689,
          -0.046351263119712965,
          0.03887995628222585,
          0.05039829352574626,
          0.07760577678226413,
          -0.09073418387002759,
          0.0991179490162794,
          0.04449694369270955,
          -0.051368020004629436,
          -0.04199717622936403,
          0.07006143403969808,
          0.010843620207574456,
          0.07560338819343229,
          -0.03244065389607849,
          -0.06569178134483518,
          -0.04836978587932747,
          -0.09153213830292593,
          0.014828599325088981,
          -0.04562266505708745,
          0.07072259196220657,
          0.06511160482832976,
          0.06693001348685931,
          0.012818099271528993,
          0.09971727156837179,
          -0.07377528742636355,
          -0.032641490931466094,
          -0.00040940987246303184,
          0.02157546070634364,
          0.056807803039991195,
          0.09186518310856237,
          0.05854440350287077,
          -0.004435031515145835,
          0.08151494535346301,
          -0.020777331773773472,
          -0.009396520089979044,
          0.008575486754763759,
          -0.09195493732683331,
          -0.015581514119790946,
          0.011458634068497758,
          0.018574838057719686,
          0.01193751898276163,
          0.0319171406660019,
          0.046121827811537286,
          -0.03435306212510786,
          -0.09064166376529992,
          -0.07161001921466628,
          0.016872068289661035,
          0.009736893129819776,
          0.05367299623016374,
          -0.024340654460872174,
          -0.06264249576836974,
          0.021054722830616684,
          0.018785360507897083,
          0.02103709371762308,
          -0.012698935404354378,
          -0.029149159330659535,
          -0.001317672726206462,
          -0.07616209146069977,
          -0.06512804609501899,
          -0.052585574064395194,
          0.007121515905784956,
          -0.040942543662511155,
          0.07833639934602071,
          0.07260197737353132,
          -0.013814657843416196,
          0.019803564630597445,
          0.07923165029729975,
          0.006509346170956581,
          0.0005031666242413524,
          -0.06556199901944107,
          0.04227958384722026,
          -0.047765025711918256,
          0.08097420356790452,
          -0.0561566780274339,
          -0.006512245319208992,
          0.06768197752647076,
          -0.037873068508788604,
          0.06399649186256054,
          -0.09789666990570121,
          0.05924388403591908,
          -0.0791953901862065,
          -0.0690517483928101,
          -0.018537839040256632,
          0.05612401149114113,
          -0.05455244274842293,
          -0.010753212055432249,
          -0.003103228543068909,
          -0.02012717705055062,
          -0.04401598682012933,
          0.08162433232998878,
          -0.002295519095482673,
          0.024441285232916082,
          0.06458364819480106,
          -4.020713624956763e-05,
          0.01177895340607404,
          -0.010046555132660034,
          -0.03791633858467641,
          0.06273733115212898,
          -0.08625609236774659,
          0.048267124897970776,
          -0.07840212536864605,
          0.0287323623211187,
          -0.058502797578689994,
          -0.08465726003552412,
          0.023663989734786894,
          0.0991110704409961,
          -0.01992973145217844,
          0.05591688826326702,
          0.005635504981046507,
          0.04150573284661924,
          -0.06142979828771938,
          0.013358482924154383,
          0.0026747418928630695,
          -0.048604266734769745,
          0.07779221785024962,
          0.09580669699148622,
          0.08360008212318046,
          0.05175807714242628,
          0.04923022748793274,
          0.0031389534980938716,
          0.07298742203308342,
          -0.09707015247565512,
          0.0973910319219301,
          0.04203908029905973,
          0.036098126583984314,
          0.0016289098938631064,
          -0.07116663758923919,
          0.060725398668842634,
          -0.026463284918174956,
          -0.06011643837042631,
          -0.08499755532022508,
          -0.03486665881794271,
          0.045059667633598866,
          0.02458946018753083,
          -0.05279908154548624,
          -0.0426387094875063,
          -0.0410738808186468,
          0.012392363073760168,
          -0.061824632738642624,
          0.009943227483739256,
          -0.02944294194328639,
          0.08686661817331931,
          -0.05974781718213103,
          0.023885874587106587,
          0.02460126084057877,
          0.07727404745007288,
          -0.0677114606841325,
          0.04591151990196557,
          -0.029940610675531804,
          0.026407633686723025,
          -0.04638434178148283,
          0.02553677565440385,
          -0.041517390373587176,
          0.06079928642484084,
          -0.0842811904832796,
          0.07084995057889207,
          0.0944368578274696,
          0.007586621435957591,
          0.027532083168770843,
          -0.03627458856285366,
          0.09951770754927128,
          0.09363708154181259,
          -0.03950120439940968,
          -0.08180972940345353,
          -0.06707239064975623,
          -0.05194210320649584,
          0.09440915127468699,
          -0.060778035905201325,
          -0.043173620826035354,
          -0.048923349828251264,
          -0.0251255082294619,
          0.09860234686531845,
          -0.026467643899694346,
          0.006966120625842437,
          -0.03747147853054639,
          -0.010617914403502808,
          -0.08119121674852725,
          0.06695182441026856,
          -0.09195143360626068,
          -0.06364583388832842
        ],
        [
          0.01864713257679586,
          0.00019328149224913355,
          0.0036339478634258987,
          -0.0032206472728154908,
          0.07250258464089585,
          -0.09218550872265033,
          -0.09613903367349454,
          0.04331374808442151,
          -0.0775641268378476,
          0.05075925269901582,
          -0.06517788808115624,
          0.09430587402655037,
          0.05947853902828118,
          -0.08406148466216969,
          0.04685340504620192,
          0.008408292144042373,
          -0.005277345811988937,
          -0.06099744276898689,
          0.09442562844075753,
          0.03993540514123445,
          0.029556934996034154,
          0.054061012483214904,
          0.09891718225467097,
          -0.08671111468584874,
          0.09100751255975141,
          0.0589279785038187,
          0.09606603013995046,
          -0.0740343573034217,
          -0.03246716050861253,
          -0.00617231422384823,
          -0.08947746821245804,
          -0.09707730494338884,
          0.09598755218411767,
          -0.09338395980912068,
          -0.08686323335671686,
          0.06904984612708023,
          0.018927340690823215,
          0.04947151938012751,
          -0.08674479874706356,
          0.002910143511004673,
          0.07302130319848078,
          -0.004834917549072989,
          -0.05350908863427069,
          0.003057908406627091,
          0.05303067375256478,
          -0.0059538086155398046,
          0.07121360576374647,
          -0.024752841099892602,
          0.0023413663967452453,
          0.06992847000428527,
          -0.07964058240900646,
          -0.011830171948001539,
          -0.09611331371926926,
          0.03769170301433372,
          0.09728909356654854,
          0.06567076151290054,
          0.06937124935247391,
          -0.01617098418318985,
          0.027011882625880276,
          0.044924272413017836,
          0.09303058228493807,
          -0.007535100962784272,
          0.0664281940391799,
          0.045809580188921395,
          -0.0030220105886615833,
          -0.02932215125443252,
          0.014792207916471067,
          -0.05034726691919167,
          0.09859542916015263,
          -0.04671400086087418,
          -0.026519968009341074,
          0.014304310491307676,
          0.013269202293592562,
          0.07783084036209129,
          0.027138440608968584,
          0.016632686509516575,
          -0.08756332363507986,
          0.01649684353359024,
          0.09242276182068557,
          -0.01375941713167648,
          0.09678079497464084,
          0.028046007729994105,
          -0.08844560273866871,
          0.08707307121757643,
          -0.0966682397003777,
          -0.010269918095320435,
          0.09909344291214146,
          -0.009832799554188736,
          0.005768715430088576,
          -0.08089529254673591,
          -0.06819257433647222,
          -0.08581272542970562,
          0.03265840410386017,
          -0.08971504443590926,
          0.05570341553911143,
          0.07354823428186094,
          -0.0702178863601785,
          -0.06886239093931885,
          -0.048807927327615255,
          -0.08824753391918472,
          -0.020760591666828282,
          0.06955708793901225,
          -0.06363057292299801,
          -0.028663784608212464,
          -0.06652597021256698,
          -0.04700883922374366,
          -0.037539436628541825,
          0.05015680663210292,
          -0.08990466008187503,
          -0.004825728692627103,
          0.021720970880501622,
          -0.029404466166574703,
          0.03593683293776864,
          -0.05098068229377484,
          -0.09358716388127264,
          0.04509261160580874,
          -0.04755105201353271,
          0.0036927228329281248,
          0.027770024569188256,
          -0.061227311102066806,
          0.07210931747868252,
          0.09358035152665212,
          -0.09555535126982558,
          -0.033860159681999805,
          0.03784283621278928,
          0.02983577371911631,
          -0.08722820207176417,
          -0.09222287327361944,
          -0.03672220074005428,
          0.08902494153699883,
          0.09010340161785535,
          0.029369588715470515,
          0.04325772082780621,
          0.019667803465120686,
          -0.01783511155450719,
          -0.0011337188132482016,
          0.05390838986458227,
          0.02942070994073226,
          0.08991747367794631,
          -0.04955829773440843,
          0.017264980871731228,
          0.019258465349243498,
          -0.07331237100849104,
          0.025312464937563162,
          0.02717451125904885,
          0.09159055071641882,
          -0.043602038555560045,
          -0.07343296806244277,
          0.029659426248585224,
          -0.09256485264493153,
          -0.0546430990919214,
          0.00936422017179786,
          -0.061322650968211656,
          -0.05468734723250422,
          -0.0775231998753499,
          0.07395164889988806,
          0.04132750327426357,
          -0.011164497621861827,
          0.04924027239644288,
          0.07249399144075826,
          0.05089892960412809,
          0.02630392638622614,
          -0.03420646262473535,
          0.07477026025638711,
          0.02518765987539101,
          -0.08612301418351694,
          0.04799336421928549,
          -0.022662024707970935,
          -0.010361742924346176,
          0.0892594334560943,
          0.038245154835177264,
          -0.08228178550146657,
          -0.025193218437338752,
          -0.09235668238882877,
          0.020864507523246287,
          0.07306099518736615,
          -0.03752372966190742,
          0.09558832991752142,
          -0.013811225606465194,
          0.03479454399409685,
          0.030277450578416937,
          -0.0054164189695465464,
          0.05567508330162432,
          0.0036067648581365325,
          -0.07243006285552392,
          0.011293146325051517,
          -0.09564388307342307,
          0.012671695993070733,
          -0.03640802010185876,
          -0.06337310097612288,
          0.04859004585096811,
          -0.07153960062481046,
          0.08300676550326647,
          -0.060299797649519295,
          0.0862840724295035,
          -0.029911249903416783,
          0.05456538112102985,
          0.007965774670946599,
          -0.08590059838072928,
          0.06787020042296926,
          -0.05319543991077085,
          0.09904475322493911,
          0.026618076525154327,
          -0.030737783443550368,
          0.03790598997472807,
          -0.09912215474084199,
          0.09856369735909958,
          -0.09604099261219645,
          0.08164195654491266,
          -0.09979011863064709,
          -0.023103611358301926,
          0.01587071854535997,
          0.031860209383210936,
          0.09320250661199575,
          0.09523160453625294,
          -0.05522791055852865,
          0.0964075197196999,
          -0.07226785280119732,
          0.09532901118076975,
          0.08753888074542113,
          -0.04162423716219351,
          0.025780888352529452,
          -0.0886661224298959,
          -0.08333820572746908,
          0.031610634506795104,
          0.09517032605614358,
          -0.03670885153394352,
          -0.04693586137609995,
          -0.08603817822668457,
          -0.0029894213049477675,
          0.060002214632713186,
          0.015528293540197883,
          -0.033212996630699196,
          -0.05208218851992681,
          -0.01952842897240817,
          0.0918150599750911,
          -0.09023552635183006,
          0.08483969436814073,
          0.01335374088706516,
          0.08272661918879103,
          -0.0331012615304698,
          -0.022824870824639312,
          -0.025281475037195834,
          -0.02231308911772442,
          -0.08976565242913502,
          -0.03724799350261292,
          -0.004727057521829933,
          0.07851233904812426,
          0.08875867837749599,
          0.07588900685739314,
          0.08757775559443931,
          0.009459046605721102,
          0.03453412450834947,
          0.07221130617381347,
          0.06211895075678322,
          -0.09087672501976221,
          0.004119351794271797,
          -0.055940079617392315,
          0.0826799714531012,
          0.07818369522969944,
          -0.09997605187500663,
          -0.026541826828857033,
          -0.03542216030016786,
          0.0951296155283263,
          0.020323525986102903,
          -0.04092249429308945,
          -0.05335748574699713,
          -0.050224503217419336,
          0.06686433726080303,
          0.07826840827570056,
          0.08518467227215548,
          0.06921491474414923,
          -0.08031798455780302,
          0.04759787497889585,
          0.024320515246207847,
          0.01967581809087031,
          0.0030698014969832957,
          -0.02002384349776362,
          0.031609957694365406,
          0.046878572800836155,
          0.03340434719238042,
          0.03454251209839482,
          0.06750294819788338,
          0.017034174556692386,
          0.08718021803546624,
          -0.0221922558902565,
          -0.0580854269616694,
          -0.07129406293010794,
          0.05205243494635517,
          -0.02852527635948654,
          0.0841978717035868,
          -0.01606958265190768,
          0.0990989381360152,
          0.019000161560344887,
          0.02758131311511114,
          -0.04808483156320387,
          0.08245301279091213,
          -0.01685790842237589,
          0.024307060696757615,
          -0.08479216515038046,
          -0.027761571094213733,
          0.032342293549743155,
          -0.06134466287468659,
          -0.09170447255419374,
          -0.043717464591562276,
          0.010955739753998984,
          -0.07743512519886325,
          0.08724072473517804,
          -0.012237684394799248,
          -0.005070507529839549,
          0.013291395612529039,
          0.07292678513892045,
          -0.032187331482750256,
          0.07105047186287877,
          0.048544148597385345,
          0.08190699250951736,
          0.04213699234903587,
          0.005311983615625529,
          -0.0897265258043829,
          -0.0031611855215130003,
          0.027805769067895496,
          -0.08068096551900755,
          -0.06742563471896408,
          -0.001207565875877642,
          -0.04408496048477428,
          -0.06196344532448555,
          -0.07759459337580826,
          0.024823278144157437,
          -0.017454926536998525,
          0.04983155015784374,
          -0.01045173815392264,
          0.04306709502459486,
          -0.04665292768939877,
          0.04753217522362507,
          -0.023824240439658674,
          -0.06667852657011093,
          0.01097118840095665,
          0.06482179824605824,
          0.07617440410827489,
          -0.09129832467931547,
          -0.07528092713001505,
          0.08052016896440281,
          0.09731823060271635,
          -0.07542627769835952,
          0.023097815620947818,
          -0.022412416721503695,
          0.0993658542401924,
          0.08291451734130495,
          0.044987047983556544,
          0.06502035284156363,
          -0.0853086960533217,
          0.04363888586175006,
          -0.0634907271113316,
          0.029954452950057612,
          0.051422680391307096,
          0.05655684073070097,
          0.01848798166507179,
          -0.05409335398319146,
          -0.08699721984395165,
          0.06354154829256492,
          0.08663847727698984,
          -0.02115702820676012,
          0.09983655185800208,
          0.03139331317763222,
          -0.08321814623378393,
          -0.06619029919600858,
          -0.06005528589164798,
          -0.07205284459159406,
          -0.046510304510601924,
          0.014281366054054029,
          0.07938734319382057,
          0.07326969118052881,
          -0.054830273813845955,
          -0.0635652697040032,
          -0.04181461670654271,
          0.09386297116618988,
          0.001858378676327696,
          0.08306589547760393,
          -0.04494414176497814,
          0.07400160928190408,
          -0.06828045159961293,
          0.034969399963758196,
          0.09029486776736897,
          0.0995892650272891,
          0.08705220181633463,
          0.06254450520658184,
          0.07278993786600169,
          0.008045286871366852,
          -0.048049652951181604,
          -0.028308640726605206,
          -0.08659948510404383,
          0.026296290871800406,
          0.016323427314130584,
          0.09147014410596198,
          0.06900019061262362,
          0.03185187617882778,
          0.0048359176060435854,
          -0.09465179020812697,
          -0.017143273453666466,
          -0.030870942548537825,
          0.09367887103585225,
          0.011291013402541905,
          -0.03817694670684493,
          0.05633656967687358,
          -0.09139258135546464,
          -0.030809170411065304,
          -0.09266763295516295,
          0.01896372046976269,
          0.05639825580890637,
          0.09049537078241102,
          -0.006079803638026413,
          -0.03166385783146637,
          -0.09951919568895398,
          -0.06651851297448691,
          -0.07002643945490597,
          0.007618871437733363,
          0.07083206839983586,
          0.05540980063901349,
          0.021079844607670217,
          -0.06511594145644609,
          -0.04865423505104103,
          -0.027184496248703935,
          0.06010922895686446,
          0.08794088939801525,
          -0.056545690146740206,
          -0.07756008944418298,
          -0.0086416506671467,
          0.0625454197927649,
          -0.025139862663553916,
          0.05798359913477885,
          -0.09278133296914082,
          -0.03566980184986848,
          -0.08027680425685312,
          0.05189943984277376,
          -0.03061811381171408,
          -0.014861325735738696,
          0.08043783279254203,
          -0.017497637689314144,
          0.08263733627764355,
          -0.03773701099120352,
          -0.04842757186217133,
          0.023101584142241435,
          0.09904718161863436,
          -0.05551779965264332,
          0.027299098415416417,
          -0.029102790206280288,
          0.041742275380556706,
          -0.05067221953707593,
          0.09749289992780172,
          -0.004803896904095684,
          0.088585647048259,
          -0.08145986948737932,
          0.02657207349407774,
          -0.05729818499422408,
          -0.09596478662013669,
          -0.0028675068075237897,
          0.08124380720346663,
          0.011985225030543556,
          0.03955107514773909,
          -0.0423494065826924,
          0.020382846681630817,
          -0.04986736387534394,
          0.041019149484116724,
          -0.07136691243530334,
          -0.0681928260712687,
          0.005517855204716032,
          0.01643469827259507,
          -0.08675248798141262,
          0.07213007843591679,
          0.054709749540835434,
          0.09467084129976956,
          -0.0006210922864312356,
          0.034167123168383134,
          0.047803753357385466,
          0.020984164195565966,
          0.054438094046895036,
          -0.05144547604737663,
          0.0801044165658123,
          -0.09547383426311756,
          0.01894132670562823,
          -0.04112236040527322,
          0.040189578684439564,
          -0.004647330925821952,
          -0.04536188677102846,
          -0.05336010644454985,
          0.025851675100828916,
          0.045321502753649046,
          0.049697429101431045,
          0.07241691067428928,
          0.07669638276241447,
          0.09003433106056023,
          0.03933611737157974,
          -0.06182749293479617,
          0.04591257111147701,
          0.007904408151215889,
          0.047504842184781876,
          0.05501480090970656,
          0.015545499061526982,
          -0.053145623433289574,
          -0.042765421466666585,
          -0.028997985685059624,
          -0.07726424852741297,
          -0.0008938633529216727,
          0.05963669449967818,
          -0.039216007056108726,
          -0.019059624335348135,
          0.0392529740339905,
          0.016348718713111637,
          0.038101140457782706,
          -0.08325111095767278,
          -0.03640512985112528,
          0.04800118653487502,
          0.02707005749469271,
          0.08379865690575758,
          -0.010003355448191574,
          -0.08767740090666719,
          -0.073080676694674,
          -0.08745721370845744,
          -0.03634074654265154,
          -0.005202656819352419,
          -0.054993996179258396,
          0.027053379960519233,
          0.08529095903983418,
          -0.0766203205018236,
          -0.03867764521770396,
          0.09244036459154856,
          0.0004403224978621473,
          0.09189292666767879,
          0.0912458771664074,
          -0.05392579845025585,
          -0.0798440504184632,
          -0.04146711651704267,
          0.09960633151384325,
          0.054418201786930964,
          0.011276118171133453,
          0.031247550697994425,
          0.0032591164845687387,
          -0.030691923454274503,
          0.04983999299303972,
          -0.013620095456943537,
          -0.049285808526971175,
          -0.01706327549085669,
          0.03588653452815008,
          -0.07930661520944789,
          0.09041803936623631,
          0.02650981897005457,
          -0.08909514147947639,
          -0.051423522849995545,
          -0.02109430087900295,
          0.09088383111158599,
          0.02757663373431437,
          -0.06026976244800874,
          -0.08198021640686207,
          -0.024389098927898353,
          -0.013447594351729418,
          0.0867294090219998,
          -0.02545014504819247,
          -0.04977403910310629,
          -0.0035944439404897166,
          0.022305929855846784,
          0.08247919314684615,
          -0.033912960049932966,
          0.03102361686703289,
          -0.030925529881527664,
          0.06833208479146743,
          -0.08015462558151693,
          0.007012044532573869,
          0.0545979549375083,
          -0.08380166111104277,
          0.02583149026521303,
          0.03965731201154013,
          -0.08764292968766849,
          0.098867066190679,
          -0.08838652232136626,
          0.05064166221214548,
          0.08725458901735589,
          0.057527162254978476,
          0.013359107871681902,
          -0.01647038521361603,
          -0.07716157141802726,
          -0.07139385927763481,
          -0.061514856860674774,
          -0.040520704850722546,
          0.04054480788999365,
          -0.07458978358977385,
          -0.017347199003389217,
          -0.034715850580558996,
          0.08302666234766426,
          0.09984950667578099,
          0.05991786234744356,
          -0.07746032785550908,
          0.06213495963194118,
          0.01547077227936282,
          0.022644133027386035,
          -0.04136866013020564,
          0.004860741488433809,
          0.02668333479300926,
          -0.06078903651451706,
          -0.020022858202326143,
          -0.07226797143146782,
          -0.05704108399569124,
          -0.036654497852946236,
          0.08034511051066154,
          -0.053000893785652564,
          -0.07781135569962716,
          0.08083819142481306,
          0.004224103532627435,
          0.09914250998178951,
          0.0510069701256887,
          -0.05373056783698282,
          -0.037783023491492145,
          0.07505919160139674,
          0.046276654067886724,
          0.07616855247660273,
          0.09160721533798216,
          0.021790220987949166,
          0.022972884297458168,
          -0.08929109026578608,
          0.021513174946760152,
          0.07962287957442417,
          -0.08490323372464392,
          -0.04056162715094061,
          -0.04870549294208956,
          0.009969718252096693,
          0.0018445179254345662,
          0.05592793588874761,
          0.04116495479706108,
          -0.07496270149376018,
          -0.028812056385624216,
          -0.05932273154741722,
          0.0042710487046246255,
          0.05171626420802935,
          -0.08376670567761264,
          0.012804980491529245,
          -0.06330653490619112,
          -0.04392621715894743,
          0.07268894425428116,
          0.09414469712319196
        ],
        [
          -0.05696962357245336,
          -0.06543819047825662,
          0.09415440068974529,
          0.025683972969015006,
          -0.09714739232741079,
          0.09014768825414543,
          -0.0913531173397952,
          -0.04779967266029361,
          0.07003880297490472,
          0.03454389082907333,
          0.08640048394848934,
          0.0446575655058146,
          0.02981247978895916,
          -0.0752455483475418,
          -0.05986602147985563,
          0.013722002492765369,
          0.08629915564669155,
          -0.0529144373951745,
          -0.0381246633504817,
          -0.0031284698184701476,
          -0.024621763706781596,
          0.07768480647461376,
          0.08913652117251888,
          -0.04187299375574303,
          0.04074614034055908,
          -0.06744056170441512,
          -0.06888277138213149,
          0.0014972661401767978,
          -0.03060963516773048,
          0.09291195956586845,
          -0.09097951477296849,
          -0.0014642748382779347,
          0.013714314298676603,
          -0.016697704666194992,
          -0.0827038693370606,
          0.09499000340969396,
          -0.08930370570549892,
          0.06265641005694358,
          -0.04225620296594049,
          0.007248176592495215,
          0.06211924717271467,
          0.07027146852116994,
          0.05852411716605682,
          -0.028187374277223815,
          -0.07662564314739716,
          -0.018483679101908068,
          -0.043514641914291864,
          -0.07543883863136894,
          -0.06361691366946534,
          -0.0625660283000393,
          0.019787438800317747,
          0.05414418951719821,
          -0.007761699628110491,
          0.02701493282476894,
          -0.06776796936314985,
          -0.010149204054297544,
          -0.02191956611885329,
          -0.05766834499490221,
          0.0627667423295803,
          -0.011186454917494842,
          0.08860114698270799,
          -0.04281900499126417,
          0.0223187800550545,
          0.029756273956379614,
          0.0838242166816299,
          -0.035433843425610165,
          -0.04768483867330491,
          -0.08453230030845245,
          -0.030917894113738978,
          0.043918696050690154,
          -0.04559782321723336,
          0.06032327690770897,
          -0.053792629477107806,
          -0.09754797236875118,
          -0.02278935165148907,
          0.009542875610260529,
          0.034263313693187164,
          0.06696765193672291,
          0.0025454653670975713,
          0.0643435329101065,
          -0.08234929511038463,
          -0.033655451632842365,
          0.017993808944729683,
          0.07456714096030508,
          -0.0025267809471396997,
          -0.009695062658566789,
          -0.04135129722597417,
          0.07924939736155787,
          0.011357246896587833,
          0.06912984254615406,
          -0.060607803617496764,
          0.08572598852526475,
          -0.07766430741780868,
          0.02013955111222336,
          -0.02541294837629296,
          0.0040545151041760236,
          -0.00560784054685301,
          0.05045095073977404,
          -0.0741153376131462,
          -0.01729806863003311,
          0.0867482363896005,
          -0.04056552638094557,
          -0.03962319900099041,
          0.09565841483670323,
          0.045504477504942686,
          0.07928430338484777,
          0.04623858981132342,
          0.01745126675750805,
          0.09605309541611781,
          -0.06193204047883243,
          0.07841002593761187,
          0.07289573027142057,
          -0.05667093985741978,
          -0.04481992987394987,
          -0.062264050833796006,
          -0.03298377173713615,
          0.03987681173875049,
          -0.08265629972909748,
          0.04852318327405092,
          0.014456160135873738,
          0.053344936787002584,
          -0.06081748702125629,
          0.06947299860666972,
          0.02991856128763465,
          0.0022057371556972742,
          0.02777684852072295,
          0.012804691039654453,
          -0.01771722207735585,
          0.0009614218368404065,
          -0.06897772843724824,
          0.021738575729282957,
          0.028209206285295274,
          -0.09622115950793769,
          -0.06564962541867991,
          0.05557845261877545,
          0.009774822764394411,
          -0.09285423949968573,
          0.09392890820050807,
          -0.02855260559417261,
          0.04594888934385213,
          0.03331507556202917,
          -0.04222440795199021,
          -0.028290530208271422,
          0.06023644989611587,
          0.039602245399193436,
          0.019758476637569106,
          -0.04050576077014503,
          0.07897570764525812,
          -0.06695655528840269,
          0.005635917720438588,
          0.04186946516997905,
          -0.04957533410157429,
          0.09190501301703172,
          0.07496009569216597,
          -0.05730051967557488,
          0.025540010030021727,
          -0.07814197322765455,
          -0.016195884304353435,
          0.009772599802372467,
          0.022619994668414117,
          -0.08512077883331258,
          -0.07375198237251382,
          -0.057751176206207205,
          -0.05973394369990972,
          0.07196910112758895,
          -0.06817399401282065,
          0.03811500886412339,
          -0.07151540176788024,
          -0.004015204929918997,
          -0.015739618095906363,
          0.0671921950137,
          0.09047930172647492,
          0.05284396639879452,
          -0.0406446532404755,
          0.028262222853003408,
          0.014172578463351473,
          -0.09686161579174929,
          -0.07601870953094832,
          -0.019867806865630902,
          0.04233554920407262,
          0.04011626180463049,
          -0.07549990984162279,
          -0.06787741101190728,
          -0.0006588748293540059,
          0.03331672990031698,
          -0.030432068906783474,
          0.056182096693605604,
          0.09985694146183101,
          -0.018511633433072494,
          -0.055283799816944895,
          -0.08597525204698989,
          0.05463396494632167,
          -0.014444043571119253,
          -0.06582300904164112,
          0.07509213805918105,
          0.08755689965818944,
          -0.08775218560532382,
          -0.01938112970399246,
          -0.06357378282513307,
          0.03327176191221454,
          0.09694317164612691,
          0.044359013350017185,
          0.04900798688364362,
          0.06054942065882615,
          0.08810983864201971,
          0.05261911126388012,
          -0.06811765169688108,
          0.0072312459073409635,
          -0.0774854799090163,
          -0.08570581131023058,
          0.016301716269060285,
          -0.0339610706030324,
          0.0242192797216247,
          0.09454712988109668,
          -0.002559319076046784,
          -0.015114660676802366,
          0.0890938256284231,
          -0.04803854194364554,
          0.023815761059008483,
          -0.0765837522797437,
          -0.09852918092926764,
          -0.06456257266771345,
          -0.027324636912797032,
          -0.08600430513783669,
          0.0147960023432612,
          0.07366455298991573,
          0.09141613367436371,
          -0.054747713768903174,
          0.08507242507028043,
          0.06443247081507308,
          -0.018397514919704844,
          0.025575597920781096,
          0.07528964896359075,
          -0.022001014861176477,
          -0.00847513161812155,
          -0.04073288792933998,
          0.08238731268108368,
          -0.060874605327673414,
          -0.030848481109400624,
          0.08237880189294475,
          0.006385320787659701,
          0.09954471046678347,
          0.06892330628168847,
          -0.06551486424752889,
          0.03658983294925561,
          0.007183139017197762,
          -0.05351802047516474,
          0.02897159085935105,
          -0.03215044938910669,
          0.004465294136520484,
          -0.08154832918467173,
          -0.0894343085010444,
          0.004701091102676511,
          0.025371039983439314,
          -0.004661217892156073,
          0.08263844629044714,
          0.08841069827189262,
          0.026147977391581284,
          0.047640155492014585,
          -0.0028744597222401633,
          -0.0030223160514784853,
          -0.062060651998894704,
          0.09496458020140683,
          0.09292193532406044,
          0.04240677626365791,
          0.09898293789096477,
          -0.04429470355129875,
          -0.018410926032415037,
          0.028249934873610577,
          -0.0893713807356468,
          -0.012457992233641371,
          0.037368998082829674,
          -0.06269224647273748,
          -0.019153816469685003,
          -0.004312587201156126,
          -0.05015950873427999,
          0.015040451804485171,
          0.02493064402253295,
          -0.06449389627333621,
          0.012099886140766472,
          -0.026934483484297306,
          0.027462525576683328,
          0.04316315797975806,
          -0.01695306104717731,
          0.04017592481885757,
          -0.058408271838944995,
          0.005750670133545313,
          0.008339418061347678,
          -0.05441567176785394,
          0.03739875660731867,
          -0.03213857148227532,
          -0.010873547740045203,
          -0.05028588442371116,
          0.08525146467232046,
          -0.05794452572947402,
          -0.059413105887839726,
          0.0736120834548943,
          -0.03221518089436938,
          0.05108977664201772,
          0.01910395961127262,
          -0.015883667759934116,
          -0.06778054868989705,
          0.09321033676100393,
          0.014374534686809604,
          0.012270752041616345,
          -0.0018114530648430686,
          0.03122964824786484,
          -0.05256145224554019,
          0.05563570397187818,
          0.07992837414154857,
          -0.07788399712523929,
          -0.007745488676486362,
          0.025064065640560296,
          0.06815838296755702,
          0.08809844026693942,
          0.02943066235747338,
          0.058417436196535166,
          -0.08060950646224935,
          0.03653853462104587,
          -0.09321470525958642,
          0.021964165293310873,
          0.04511499055152718,
          -0.0706387573365745,
          -0.07111968978259968,
          0.074328800134429,
          -0.07650125851011312,
          -0.06344551997524539,
          0.04597210898300619,
          0.03907166123362728,
          0.08177195625453798,
          -0.08245080483415611,
          -0.04525662920716927,
          -0.03710453178321227,
          -0.035111030742399074,
          -0.08379683066051707,
          -0.08927759022769098,
          0.07627664133105481,
          -0.07245915834514392,
          -0.09888137088431384,
          0.01481372016031434,
          -0.034067274322077665,
          -0.04764755923103817,
          0.08176259079443435,
          -0.09006313348312933,
          0.07769732290815723,
          -0.09118938229977198,
          -0.00066285566824556,
          -0.06854803297440278,
          -0.03421281861401547,
          -0.02091961068531642,
          -0.007074296517096151,
          0.0073107294534475314,
          -0.07966857911415588,
          0.04695653588624116,
          -0.05325985301494114,
          0.023879837069344795,
          0.05776086382649234,
          -0.0015216105162754374,
          0.07352585071389992,
          0.08921860108392984,
          -0.02337982942811623,
          -0.08217954559386072,
          0.012890827362436158,
          0.05124903697311631,
          0.07007423036850297,
          -0.024327609636095884,
          0.05889428266553308,
          -0.01301447948409773,
          -0.09166128618917146,
          -0.040177138691509184,
          0.001702624491581097,
          -0.006265184074571106,
          0.07015364035833346,
          -0.01364743693519837,
          0.0947615676020523,
          0.01904470707393588,
          -0.09490929536278635,
          0.08242762108424936,
          -0.0944411762928079,
          0.05384772154421649,
          -0.04721113221919111,
          0.019500989802105767,
          0.057664561124500885,
          0.011254156565570342,
          0.03624140577609311,
          -0.012470066821253671,
          0.05865625892714632,
          -0.07578698592315312,
          0.016206728165609433,
          -0.03768675149599248,
          0.04458483692334442,
          0.05401515408707788,
          0.022936518486662692,
          0.05511444759546277,
          -0.0023502260462432136,
          0.029857125448231547,
          -0.0308009951105781,
          -0.0022712449678153473,
          -0.05264765736464867,
          -0.05666295124737992,
          0.009155283392376104,
          0.07293667275045998,
          0.0490933076578029,
          0.08269224127956283,
          -0.08157407191394671,
          0.05308287309783383,
          -0.027619545709365714,
          0.054760435608948776,
          -0.03401430438503339,
          0.0673738062840776,
          -0.05034775331911574,
          0.023489278730428994,
          0.052633693991714,
          -0.0946929749113044,
          -0.09210919607193453,
          0.06364961574014522,
          -0.028930061155313398,
          0.022177509030923,
          -0.002092494353059776,
          0.055445275726298954,
          -0.07691097647877816,
          -0.009243837588975151,
          -0.07115600442494215,
          0.030890028119692353,
          -0.07064438571639238,
          -0.04532655686752605,
          0.008385811065767149,
          0.09198273827227993,
          -0.08424137637749346,
          0.045338427486896676,
          -0.0005528535796577305,
          0.0699549083108186,
          -0.09635467979636517,
          -0.06260532590842179,
          -0.09598433140359572,
          0.03886040625114359,
          -0.04072571488197984,
          -0.028908503362743847,
          0.09378872684089093,
          -0.03420989276114615,
          0.052077298131329386,
          -0.0738686767526858,
          -0.053480835090358614,
          -0.09158657520685982,
          -0.02224572965538671,
          0.054718671831692295,
          -0.08561136876584065,
          -0.0364266229436202,
          -0.09157415998386838,
          0.07177450485442485,
          -0.07428799303181303,
          0.08016359373983642,
          -0.0576380199954722,
          0.06151292446295788,
          -0.061650038354941095,
          -0.023392356714588586,
          -0.0694057685624041,
          0.01016179554453503,
          -0.032209967242378276,
          -0.046826006061236304,
          -0.092833745589872,
          0.05794292250663624,
          0.09581110365608747,
          -0.07417349423934633,
          -0.0959368978360009,
          0.0350888361706867,
          0.09838473749046753,
          0.0020976172426625944,
          -0.002218514860698989,
          -0.021013610673773983,
          0.04852568425479737,
          -0.09226193283595281,
          0.008836246828041586,
          -0.0436665677366054,
          -0.05679177344117963,
          -0.011704431850682845,
          0.08163764256055567,
          0.04501649931085233,
          -0.00433712456241328,
          0.0391646376077085,
          0.06322647584195756,
          0.05288678832651547,
          0.0042762769003644036,
          -0.03419850365779574,
          0.0659791585684241,
          0.047943302088092304,
          -0.0450153898378429,
          0.008574861910683754,
          -0.029598924732494022,
          0.02528396587258655,
          -0.02678327581367093,
          0.06715860994275574,
          -0.007861947675075281,
          0.09224273335932506,
          -0.026540316503501,
          -0.09014217190211878,
          0.010748206152783227,
          -0.037230435930664225,
          0.056143233518255675,
          -0.026077810869646542,
          0.030818614160682184,
          -0.06059523100733457,
          -0.05929041747296744,
          -0.05942952070604582,
          0.034437707738567414,
          -0.012240392267912362,
          -0.0845011872705521,
          -0.08199514941633682,
          0.06615359748011942,
          0.09138778059753619,
          0.06760505347072795,
          -0.08132811438565923,
          0.09948042966730161,
          -0.07067159569934103,
          0.044111876176668924,
          -0.03574159567547604,
          -0.06448072513613648,
          -0.0814230486401611,
          0.08627229215251614,
          0.06078111823749349,
          -0.058028154087395256,
          -0.04437987734733943,
          0.0628670594023107,
          0.05493719841016073,
          0.01234721478128202,
          -0.07378876780284821,
          -0.08175679546489248,
          0.02561138045487138,
          -0.01245472500631331,
          0.06876597781473312,
          0.0034158189582174786,
          -0.05422889831076743,
          -0.029519593737857952,
          0.0694126231427877,
          0.06346175022741715,
          0.010413113011200556,
          0.011264170083035175,
          0.0276007792700801,
          -0.08161322692625464,
          -0.00410590291580433,
          -0.06603438177160512,
          -0.07717070302836014,
          -0.08679734313734606,
          -0.0365805600060845,
          0.09115772838340838,
          0.0063394051113329596,
          0.06058004046823054,
          -0.017827697099401643,
          -0.013318237268801436,
          -0.013135335056944045,
          -0.05733137909777564,
          0.05397530857390215,
          -0.03573791916052503,
          -0.01874837754323335,
          -0.0913924145796281,
          -0.04983949014403436,
          0.015606127233615014,
          0.0723207858892781,
          0.03073300390280001,
          0.05946694927658494,
          0.05377386919581845,
          0.0553693327642015,
          0.033642915186882276,
          -0.08032600428798198,
          0.006058719833132081,
          -0.04110729764030781,
          0.02558594700636785,
          -0.04862658821239921,
          -0.0690509200044585,
          -0.026000712350593314,
          -0.0416603936008525,
          -0.09798513803519425,
          0.00432948745145216,
          -0.039266288482188764,
          -0.09855030933002842,
          -0.001250230290882809,
          0.09914929195489894,
          0.02199133289039086,
          -0.0016663112026835958,
          0.008137734348237571,
          0.04921355672725217,
          -0.041584335032427845,
          0.03441648455179197,
          0.001408925823412982,
          -0.046341733936954246,
          0.00853427143664312,
          0.03064389062129627,
          0.09794401794278262,
